{
  "labels": {
    "labels": [
      "1",
      "2",
      "3",
      "4"
    ],
    "rows": 4
  },
  "mlp": {
    "layers": [
      {
        "activation": 3,
        "biases": [
          -0.4515342796460634,
          0.48442632520027307,
          -0.3295273626480123,
          0.444570399783827,
          0.660435262110856,
          0.5687638270923525
        ],
        "cols": 6,
        "rows": 2,
        "weights": [
          [
            0.3819363411225039,
            -1.172708612529864,
            -0.6151278383611505,
            -1.3748572281310327,
            0.6238365586889644,
            -0.3142561224145004
          ],
          [
            1.0318775788168801,
            -0.18341818234183332,
            1.139952287551707,
            0.7074059571265905,
            0.1624991697340146,
            -0.8626010362869296
          ]
        ]
      },
      {
        "activation": 1,
        "biases": [
          -0.23679850794410226,
          -0.4700050104626993,
          -0.32741500524341616,
          -0.8199705046546064
        ],
        "cols": 4,
        "rows": 6,
        "weights": [
          [
            -1.0936503979548609,
            -0.6231308983355257,
            -0.21115508953926157,
            0.6870960443027359
          ],
          [
            0.8424841922006479,
            -0.7284281853838253,
            0.1919717165415809,
            -0.5782483663059103
          ],
          [
            -0.23423344940736573,
            -0.6844618546729675,
            1.3775844905469727,
            0.4072824164551666
          ],
          [
            0.5987228026539361,
            -1.3795837620035112,
            0.8061411522863566,
            -0.7167561839572939
          ],
          [
            -0.913747340732228,
            -0.7863767627973683,
            -0.8778431958062056,
            -0.392406136437095
          ],
          [
            0.9793289383963674,
            -0.08771981709084681,
            -0.221271360462097,
            -1.1021255437335298
          ]
        ]
      }
    ]
  }
}
