{
  "layers": [
    {
      "activation": 3,
      "biases": [
        1.8630553070661664,
        -1.7324016321033178,
        -1.4372925540853654
      ],
      "cols": 3,
      "rows": 2,
      "weights": [
        [
          1.147870808400538,
          1.6127313776985674,
          2.199603124121245
        ],
        [
          -3.517386308396896,
          1.8981062388186176,
          -0.8794188875477522
        ]
      ]
    },
    {
      "activation": 3,
      "biases": [
        1.5595845866203284,
        -1.9199525814014966,
        1.7859102152906086
      ],
      "cols": 3,
      "rows": 3,
      "weights": [
        [
          -3.4062617259125427,
          2.2531292914941607,
          1.9445281775448888
        ],
        [
          2.514985342168226,
          -1.1990720692513388,
          -3.1103403185015814
        ],
        [
          2.2776771356477123,
          0.39004967458488743,
          -0.6940886502421917
        ]
      ]
    },
    {
      "activation": 1,
      "biases": [
        0.12489804908784946,
        -0.5211567744805891,
        -0.171603663343109,
        -1.931553046089072,
        0.9498526344421063,
        0.730924575314717
      ],
      "cols": 6,
      "rows": 3,
      "weights": [
        [
          0.1405928475852536,
          -2.1706984017441235,
          -1.2527449010343155,
          4.807017883741674,
          -3.650851909776419,
          1.2532961751164802
        ],
        [
          -0.7443661039807474,
          0.03629041117531445,
          0.18874765257855575,
          1.7130211626214273,
          -0.15977350254663067,
          2.6173435896406696
        ],
        [
          0.005580674602871956,
          -2.5508775802273322,
          -1.7503811212171472,
          4.185982067441866,
          -2.7439468262510576,
          0.7557526077539777
        ]
      ]
    }
  ]
}
