{
  "layers": [
    {
      "activation": 3,
      "biases": [
        0.22375891421891259,
        0.20849309622211884,
        -1.0709504213762702
      ],
      "cols": 3,
      "rows": 2,
      "weights": [
        [
          0.6183283654003213,
          -0.9822301071506042,
          -0.9072262499730857
        ],
        [
          -2.358458915536532,
          -2.9358185163761243,
          -0.8603549242317772
        ]
      ]
    },
    {
      "activation": 3,
      "biases": [
        0.9337916317413082,
        -0.5488611152485472,
        0.1281271178674506
      ],
      "cols": 3,
      "rows": 3,
      "weights": [
        [
          0.3738314039022821,
          2.142983498267143,
          1.4478324414555137
        ],
        [
          -0.6998437633857809,
          -1.843070649262589,
          1.3822016050404642
        ],
        [
          -1.2934331172283868,
          -0.3133742028481661,
          -0.8547412026595116
        ]
      ]
    },
    {
      "activation": 1,
      "biases": [
        0.6921007930797956,
        -1.1549288692011699,
        -0.4551428071466234,
        -0.3694909876725661
      ],
      "cols": 4,
      "rows": 3,
      "weights": [
        [
          0.9780300912679737,
          -0.080300160978254,
          -0.002466956527410676,
          -0.1539343780761161
        ],
        [
          -1.939623773095536,
          -1.3563017154111416,
          1.5390206595533051,
          1.7174601964269065
        ],
        [
          0.34705746662668463,
          -1.3094188263628732,
          -1.332590692452445,
          -1.347995150340219
        ]
      ]
    }
  ]
}
