{
  "layers": [
    {
      "activation": 3,
      "biases": [
        -0.28769972269063115,
        0.7638245308686038,
        0.38265647913560696
      ],
      "cols": 3,
      "rows": 2,
      "weights": [
        [
          -1.3195554864386765,
          -1.3311998172326396,
          -1.0276506624784107
        ],
        [
          1.4323977094798908,
          -0.6350290283683254,
          1.2457201593599232
        ]
      ]
    },
    {
      "activation": 3,
      "biases": [
        -0.044107474163985,
        0.9646548460669783,
        1.0607329504736482
      ],
      "cols": 3,
      "rows": 3,
      "weights": [
        [
          -1.0371793918704961,
          -1.8472200317532657,
          1.7567317685964923
        ],
        [
          1.6816256628892947,
          -0.8544305335638843,
          0.4231281375755394
        ],
        [
          0.04483822228018364,
          -0.8816331422928466,
          1.8563876836316602
        ]
      ]
    },
    {
      "activation": 1,
      "biases": [
        -1.5895160374298178,
        -0.09004587682557638,
        -0.11046803420078874,
        -1.2032076883819336,
        0.03131204094976032,
        1.3900793492948937
      ],
      "cols": 6,
      "rows": 3,
      "weights": [
        [
          -0.9899162133363733,
          0.5813808816257195,
          -1.855711951899947,
          0.35198060635956696,
          -1.058665496573409,
          -0.767851661161134
        ],
        [
          2.104733386952102,
          1.2643586294575897,
          -0.7855922189163957,
          0.47174962696664513,
          0.43550036344491644,
          0.030255670880022865
        ],
        [
          1.4513449945182453,
          -1.6870908967000195,
          -1.0722553310277507,
          0.9849549609704463,
          0.5185000487006861,
          -1.342824461433016
        ]
      ]
    }
  ]
}
