{
  "layers": [
    {
      "activation": 3,
      "biases": [
        -1.4806647376748299,
        0.7762678922334164,
        -0.43083016482527614
      ],
      "cols": 3,
      "rows": 2,
      "weights": [
        [
          -0.12458046153090058,
          -2.1996194786340455,
          2.368776412079811
        ],
        [
          2.8262640432182793,
          -2.2324934281783118,
          -0.4079954163017047
        ]
      ]
    },
    {
      "activation": 3,
      "biases": [
        -0.38055223719582043,
        -1.7785931738921044,
        1.7197890494442793
      ],
      "cols": 3,
      "rows": 3,
      "weights": [
        [
          -2.850865840617844,
          -2.8278432134538356,
          -1.5775034778488586
        ],
        [
          2.664031247084131,
          -2.071557267222305,
          0.5157657649598085
        ],
        [
          1.247370331290384,
          1.6677683618133745,
          -2.0013594301018065
        ]
      ]
    },
    {
      "activation": 1,
      "biases": [
        0.36334115505592696,
        -1.202831354410823,
        -1.1550362993610466,
        -0.2698914712979451
      ],
      "cols": 4,
      "rows": 3,
      "weights": [
        [
          -3.158308351432312,
          -2.8770241103452285,
          -2.5478246607198143,
          -2.3090714925087776
        ],
        [
          1.726897676453545,
          2.296915283333679,
          2.5074955131258556,
          4.222808310114442
        ],
        [
          -2.253361750833319,
          0.5874289651619802,
          1.1634485578574967,
          2.4093566160087887
        ]
      ]
    }
  ]
}
